digraph Tree {
node [shape=box] ;
0 [label="char_freq_$ <= -0.0826\nentropy = 0.9693\nsamples = 3681\nvalue = [2219, 1462]"] ;
1 [label="entropy = 0.7883\nsamples = 2763\nvalue = [2111, 652]"] ;
0 -> 1 [labeldistance=2.5, labelangle=45, headlabel="True"] ;
2 [label="entropy = 0.5226\nsamples = 918\nvalue = [108, 810]"] ;
0 -> 2 [labeldistance=2.5, labelangle=-45, headlabel="False"] ;
}