digraph Tree {
node [shape=box] ;
0 [label="char_freq_$ <= -0.0826\nentropy = 0.9686\nsamples = 4141\nvalue = [2501, 1640]"] ;
1 [label="entropy = 0.7871\nsamples = 3124\nvalue = [2389, 735]"] ;
0 -> 1 [labeldistance=2.5, labelangle=45, headlabel="True"] ;
2 [label="entropy = 0.5003\nsamples = 1017\nvalue = [112, 905]"] ;
0 -> 2 [labeldistance=2.5, labelangle=-45, headlabel="False"] ;
}